{"things":["Rock","Paper","Scissors","Knife"],"thingLayers":[{"inputNeurons":[1],"outputNeurons":[0.4070334828044584,0.8919876641820235],"weights":[0.4070334828044584,0.8919876641820235],"learningRate":0.005},{"inputNeurons":[1],"outputNeurons":[-0.00815488861794465,0.010362291255826772],"weights":[-0.8154888617944649,0.010362291255826772],"learningRate":0.005},{"inputNeurons":[1],"outputNeurons":[-0.0021563076045975384,-0.0016117608711258401],"weights":[-0.21563076045975382,-0.16117608711258402],"learningRate":0.005},{"inputNeurons":[1],"outputNeurons":[-0.00006034262870209695,-0.002806268479059799],"weights":[-0.0060342628702096945,-0.2806268479059799],"learningRate":0.005}],"neuralLayers":[{"inputNeurons":[-0.00006034262870209695,-0.002806268479059799,-0.0021563076045975384,-0.0016117608711258401,1],"outputNeurons":[0.40134826219536895,-0.004156457594635215,0.18359974368890503,-0.00017609792370295433],"weights":[0.018523941306383407,3.948711689475529,-1.963678440547029,-6.388404367341815,-0.46623691506701154,-10.590236694173713,-0.6315463688646117,3.3460494568558192,-2.497341822686929,0.6016897078775655,6.79934329401316,-12.162511265677976,2.1926272605634383,0.386996692493193,-10.633376135138302,5.4490888202198935,0.4060433986174525,-0.4440042070825536,0.15227914347565075,0.0059523159315072105]},{"inputNeurons":[0.40920171313266607,-0.004164446095241612,0.1566469095941178,0.014391383313559884,1],"outputNeurons":[0.5175532883844518,0.4782712975524721],"weights":[-1.625767728087443,1.7828193470718388,-6.733818202458626,6.3357212018076625,-8.099204921115565,8.679962864868216,-5.812355684328573,6.128082067603861,2.6280519148100607,-1.8034858073869795]}]}