{"things":["Rock","Paper","Scissors","Knife"],"thingLayers":[{"inputNeurons":[1],"outputNeurons":[0.18903899899389165,0.334774173759095],"weights":[0.18903899899389165,0.334774173759095],"learningRate":0.001},{"inputNeurons":[1],"outputNeurons":[-0.0069123626671219185,-0.0058622775165375176],"weights":[-0.6912362667121918,-0.5862277516537517],"learningRate":0.001},{"inputNeurons":[1],"outputNeurons":[0.3611039189786456,-0.000270190236539527],"weights":[0.3611039189786456,-0.0270190236539527],"learningRate":0.001},{"inputNeurons":[1],"outputNeurons":[0.31880620651760694,-0.0048717979479845795],"weights":[0.31880620651760694,-0.48717979479845797],"learningRate":0.01}],"neuralLayers":[{"inputNeurons":[0.31880620651760694,-0.0048717979479845795,0.3611039189786456,-0.000270190236539527,1],"outputNeurons":[0.8122823825677797,0.07037443441108521,-0.002725941557336351,0.9832236686398297],"weights":[-1.5501437893337113,-2.5087151089709447,-0.37613847853805604,-1.1050875200776353,-3.077390671032298,-1.4146921341417606,1.7666221357815892,-2.2752471630485593,1.6127923382795444,2.5433413795974893,0.2873671790102383,1.0786661846845715,-3.273952792277947,-1.7301198504348372,1.7745240650758656,-2.4846050249108904,0.7613671742830259,0.044014475853526774,-0.22704156568868253,0.968457916225611]},{"inputNeurons":[0.8654343627358407,0.1699906239300759,-0.002522735178031223,1.0174156031185382,1],"outputNeurons":[-0.0006116044852082777,-0.0056687306566338405,1.0195229166468924],"weights":[-3.78752882355161,0.15649524080225993,3.215656563705923,-0.364356298646793,2.738660600140166,-2.885479682073435,-0.5294873112176285,-1.5255527043677002,1.8207826804205085,2.9322965251449826,-2.3962579104606716,-0.6915067315401642,0.1564771583005932,1.4651758427140618,-0.7045651251597835]}]}