{"things":["Rock","Paper","Scissors","Knife"],"thingLayers":[{"inputNeurons":[1],"outputNeurons":[0.27935115157985857,0.963199639720477],"weights":[0.27935115157985857,0.963199639720477],"learningRate":0.005},{"inputNeurons":[1],"outputNeurons":[0.653010730981026,0.725704919185227],"weights":[0.653010730981026,0.725704919185227],"learningRate":0.005},{"inputNeurons":[1],"outputNeurons":[-0.007750460728635988,-0.005921878911559469],"weights":[-0.7750460728635988,-0.5921878911559468],"learningRate":0.005},{"inputNeurons":[1],"outputNeurons":[-0.005509849640711395,0.2829720084442062],"weights":[-0.5509849640711395,0.2829720084442062],"learningRate":0.005}],"neuralLayers":[{"inputNeurons":[-0.005509849640711395,0.2829720084442062,-0.007750460728635988,-0.005921878911559469,1],"outputNeurons":[-0.007805763123684917,-0.00810133962831301,0.5785657596258583],"weights":[1.30208122953354,-2.027626488282388,-1.4880432741527145,-0.11380473614021913,0.005064970813525489,0.8830020730309114,-0.23311507024191722,2.1313698692413325,-1.5588366100975553,1.1433543027903155,-0.043548097588765856,-0.22777646959842665,-1.066020178227626,-0.7986727047261954,0.376367404602974]},{"inputNeurons":[-0.011103620613153807,-0.008023287545934248,0.6478617359691676,1],"outputNeurons":[0.6875415395448454,0.3109599746464816],"weights":[1.4162154370354387,-1.3832429599586131,1.77597145742704,-2.046651838880121,1.2484276794146065,-1.2266712198161966,-0.009313578953202869,0.9932920522149967]}]}